digraph Tree {
node [shape=box, style="filled, rounded", color="black", fontname=helvetica] ;
edge [fontname=helvetica] ;
0 [label="REGION <= 4.5\ngini = 0.48\nsamples = 5073\nvalue = [3210, 4840]\nclass = Infrequent buyer", fillcolor="#399de556"] ;
1 [label="ADMTYP <= 1.5\ngini = 0.47\nsamples = 4233\nvalue = [2575, 4116]\nclass = Infrequent buyer", fillcolor="#399de55f"] ;
0 -> 1 [labeldistance=2.5, labelangle=45, headlabel="True"] ;
2 [label="REFILL_COUNT <= 3.5\ngini = 0.27\nsamples = 115\nvalue = [33, 170]\nclass = Infrequent buyer", fillcolor="#399de5cd"] ;
1 -> 2 ;
3 [label="gini = 0.0\nsamples = 94\nvalue = [0, 170]\nclass = Infrequent buyer", fillcolor="#399de5ff"] ;
2 -> 3 ;
4 [label="gini = 0.0\nsamples = 21\nvalue = [33, 0]\nclass = Frequent buyer", fillcolor="#e58139ff"] ;
2 -> 4 ;
5 [label="Medicine <= 1.5\ngini = 0.48\nsamples = 4118\nvalue = [2542, 3946]\nclass = Infrequent buyer", fillcolor="#399de55b"] ;
1 -> 5 ;
6 [label="Total Knee Arthrolplasty <= 0.5\ngini = 0.5\nsamples = 2058\nvalue = [1590, 1614]\nclass = Infrequent buyer", fillcolor="#399de504"] ;
5 -> 6 ;
7 [label="AGEGRP <= 3.5\ngini = 0.5\nsamples = 1997\nvalue = [1550, 1549]\nclass = Frequent buyer", fillcolor="#e5813900"] ;
6 -> 7 ;
8 [label="REFILL_COUNT <= 3.5\ngini = 0.5\nsamples = 737\nvalue = [535, 616]\nclass = Infrequent buyer", fillcolor="#399de522"] ;
7 -> 8 ;
9 [label="gini = 0.0\nsamples = 407\nvalue = [0, 616]\nclass = Infrequent buyer", fillcolor="#399de5ff"] ;
8 -> 9 ;
10 [label="gini = 0.0\nsamples = 330\nvalue = [535, 0]\nclass = Frequent buyer", fillcolor="#e58139ff"] ;
8 -> 10 ;
11 [label="ADMTYP <= 3.5\ngini = 0.5\nsamples = 1260\nvalue = [1015, 933]\nclass = Frequent buyer", fillcolor="#e5813915"] ;
7 -> 11 ;
12 [label="Total Knee Replacement <= 0.5\ngini = 0.5\nsamples = 886\nvalue = [701, 677]\nclass = Frequent buyer", fillcolor="#e5813909"] ;
11 -> 12 ;
13 [label="Removal of Foreign Body from Eye <= 0.5\ngini = 0.5\nsamples = 883\nvalue = [697, 676]\nclass = Frequent buyer", fillcolor="#e5813908"] ;
12 -> 13 ;
14 [label="OSTEOARTHROSIS generalized lower leg <= 0.5\ngini = 0.5\nsamples = 874\nvalue = [694, 664]\nclass = Frequent buyer", fillcolor="#e581390b"] ;
13 -> 14 ;
15 [label="REGION <= 3.5\ngini = 0.5\nsamples = 862\nvalue = [683, 657]\nclass = Frequent buyer", fillcolor="#e581390a"] ;
14 -> 15 ;
16 [label="OSTEOARTHROSIS secondary lower leg <= 0.5\ngini = 0.5\nsamples = 770\nvalue = [626, 564]\nclass = Frequent buyer", fillcolor="#e5813919"] ;
15 -> 16 ;
17 [label="AGEGRP <= 4.5\ngini = 0.5\nsamples = 767\nvalue = [622, 562]\nclass = Frequent buyer", fillcolor="#e5813919"] ;
16 -> 17 ;
18 [label="REFILL_COUNT <= 3.5\ngini = 0.49\nsamples = 410\nvalue = [351, 282]\nclass = Frequent buyer", fillcolor="#e5813932"] ;
17 -> 18 ;
19 [label="gini = 0.0\nsamples = 180\nvalue = [0, 282]\nclass = Infrequent buyer", fillcolor="#399de5ff"] ;
18 -> 19 ;
20 [label="gini = 0.0\nsamples = 230\nvalue = [351, 0]\nclass = Frequent buyer", fillcolor="#e58139ff"] ;
18 -> 20 ;
21 [label="SEX <= 1.5\ngini = 0.5\nsamples = 357\nvalue = [271, 280]\nclass = Infrequent buyer", fillcolor="#399de508"] ;
17 -> 21 ;
22 [label="REFILL_COUNT <= 3.5\ngini = 0.49\nsamples = 150\nvalue = [130, 106]\nclass = Frequent buyer", fillcolor="#e581392f"] ;
21 -> 22 ;
23 [label="gini = 0.0\nsamples = 66\nvalue = [0, 106]\nclass = Infrequent buyer", fillcolor="#399de5ff"] ;
22 -> 23 ;
24 [label="gini = 0.0\nsamples = 84\nvalue = [130, 0]\nclass = Frequent buyer", fillcolor="#e58139ff"] ;
22 -> 24 ;
25 [label="ADMTYP <= 2.5\ngini = 0.49\nsamples = 207\nvalue = [141, 174]\nclass = Infrequent buyer", fillcolor="#399de530"] ;
21 -> 25 ;
26 [label="REFILL_COUNT <= 3.5\ngini = 0.5\nsamples = 142\nvalue = [108, 107]\nclass = Frequent buyer", fillcolor="#e5813902"] ;
25 -> 26 ;
27 [label="gini = 0.0\nsamples = 73\nvalue = [0, 107]\nclass = Infrequent buyer", fillcolor="#399de5ff"] ;
26 -> 27 ;
28 [label="gini = 0.0\nsamples = 69\nvalue = [108, 0]\nclass = Frequent buyer", fillcolor="#e58139ff"] ;
26 -> 28 ;
29 [label="REFILL_COUNT <= 3.5\ngini = 0.44\nsamples = 65\nvalue = [33, 67]\nclass = Infrequent buyer", fillcolor="#399de581"] ;
25 -> 29 ;
30 [label="gini = 0.0\nsamples = 41\nvalue = [0, 67]\nclass = Infrequent buyer", fillcolor="#399de5ff"] ;
29 -> 30 ;
31 [label="gini = 0.0\nsamples = 24\nvalue = [33, 0]\nclass = Frequent buyer", fillcolor="#e58139ff"] ;
29 -> 31 ;
32 [label="SEX <= 1.5\ngini = 0.44\nsamples = 3\nvalue = [4, 2]\nclass = Frequent buyer", fillcolor="#e581397f"] ;
16 -> 32 ;
33 [label="ADMTYP <= 2.5\ngini = 0.32\nsamples = 2\nvalue = [4, 1]\nclass = Frequent buyer", fillcolor="#e58139bf"] ;
32 -> 33 ;
34 [label="gini = 0.0\nsamples = 1\nvalue = [0, 1]\nclass = Infrequent buyer", fillcolor="#399de5ff"] ;
33 -> 34 ;
35 [label="gini = 0.0\nsamples = 1\nvalue = [4, 0]\nclass = Frequent buyer", fillcolor="#e58139ff"] ;
33 -> 35 ;
36 [label="gini = 0.0\nsamples = 1\nvalue = [0, 1]\nclass = Infrequent buyer", fillcolor="#399de5ff"] ;
32 -> 36 ;
37 [label="ADMTYP <= 2.5\ngini = 0.47\nsamples = 92\nvalue = [57, 93]\nclass = Infrequent buyer", fillcolor="#399de563"] ;
15 -> 37 ;
38 [label="REFILL_COUNT <= 3.5\ngini = 0.5\nsamples = 54\nvalue = [43, 46]\nclass = Infrequent buyer", fillcolor="#399de511"] ;
37 -> 38 ;
39 [label="gini = 0.0\nsamples = 27\nvalue = [0, 46]\nclass = Infrequent buyer", fillcolor="#399de5ff"] ;
38 -> 39 ;
40 [label="gini = 0.0\nsamples = 27\nvalue = [43, 0]\nclass = Frequent buyer", fillcolor="#e58139ff"] ;
38 -> 40 ;
41 [label="AGEGRP <= 4.5\ngini = 0.35\nsamples = 38\nvalue = [14, 47]\nclass = Infrequent buyer", fillcolor="#399de5b3"] ;
37 -> 41 ;
42 [label="REFILL_COUNT <= 12.0\ngini = 0.42\nsamples = 19\nvalue = [10, 23]\nclass = Infrequent buyer", fillcolor="#399de590"] ;
41 -> 42 ;
43 [label="gini = 0.0\nsamples = 12\nvalue = [0, 23]\nclass = Infrequent buyer", fillcolor="#399de5ff"] ;
42 -> 43 ;
44 [label="gini = 0.0\nsamples = 7\nvalue = [10, 0]\nclass = Frequent buyer", fillcolor="#e58139ff"] ;
42 -> 44 ;
45 [label="SEX <= 1.5\ngini = 0.24\nsamples = 19\nvalue = [4, 24]\nclass = Infrequent buyer", fillcolor="#399de5d4"] ;
41 -> 45 ;
46 [label="gini = 0.0\nsamples = 6\nvalue = [0, 9]\nclass = Infrequent buyer", fillcolor="#399de5ff"] ;
45 -> 46 ;
47 [label="REFILL_COUNT <= 12.0\ngini = 0.33\nsamples = 13\nvalue = [4, 15]\nclass = Infrequent buyer", fillcolor="#399de5bb"] ;
45 -> 47 ;
48 [label="gini = 0.0\nsamples = 10\nvalue = [0, 15]\nclass = Infrequent buyer", fillcolor="#399de5ff"] ;
47 -> 48 ;
49 [label="gini = 0.0\nsamples = 3\nvalue = [4, 0]\nclass = Frequent buyer", fillcolor="#e58139ff"] ;
47 -> 49 ;
50 [label="AGEGRP <= 4.5\ngini = 0.48\nsamples = 12\nvalue = [11, 7]\nclass = Frequent buyer", fillcolor="#e581395d"] ;
14 -> 50 ;
51 [label="SEX <= 1.5\ngini = 0.42\nsamples = 6\nvalue = [7, 3]\nclass = Frequent buyer", fillcolor="#e5813992"] ;
50 -> 51 ;
52 [label="REGION <= 1.5\ngini = 0.41\nsamples = 4\nvalue = [5, 2]\nclass = Frequent buyer", fillcolor="#e5813999"] ;
51 -> 52 ;
53 [label="gini = 0.0\nsamples = 1\nvalue = [1, 0]\nclass = Frequent buyer", fillcolor="#e58139ff"] ;
52 -> 53 ;
54 [label="REFILL_COUNT <= 11.5\ngini = 0.44\nsamples = 3\nvalue = [4, 2]\nclass = Frequent buyer", fillcolor="#e581397f"] ;
52 -> 54 ;
55 [label="gini = 0.0\nsamples = 2\nvalue = [0, 2]\nclass = Infrequent buyer", fillcolor="#399de5ff"] ;
54 -> 55 ;
56 [label="gini = 0.0\nsamples = 1\nvalue = [4, 0]\nclass = Frequent buyer", fillcolor="#e58139ff"] ;
54 -> 56 ;
57 [label="REGION <= 2.5\ngini = 0.44\nsamples = 2\nvalue = [2, 1]\nclass = Frequent buyer", fillcolor="#e581397f"] ;
51 -> 57 ;
58 [label="gini = 0.0\nsamples = 1\nvalue = [0, 1]\nclass = Infrequent buyer", fillcolor="#399de5ff"] ;
57 -> 58 ;
59 [label="gini = 0.0\nsamples = 1\nvalue = [2, 0]\nclass = Frequent buyer", fillcolor="#e58139ff"] ;
57 -> 59 ;
60 [label="REFILL_COUNT <= 6.0\ngini = 0.5\nsamples = 6\nvalue = [4, 4]\nclass = Frequent buyer", fillcolor="#e5813900"] ;
50 -> 60 ;
61 [label="gini = 0.0\nsamples = 3\nvalue = [0, 4]\nclass = Infrequent buyer", fillcolor="#399de5ff"] ;
60 -> 61 ;
62 [label="gini = 0.0\nsamples = 3\nvalue = [4, 0]\nclass = Frequent buyer", fillcolor="#e58139ff"] ;
60 -> 62 ;
63 [label="SEX <= 1.5\ngini = 0.32\nsamples = 9\nvalue = [3, 12]\nclass = Infrequent buyer", fillcolor="#399de5bf"] ;
13 -> 63 ;
64 [label="OSTEOARTHROSIS secondary lower leg <= 0.5\ngini = 0.22\nsamples = 5\nvalue = [1, 7]\nclass = Infrequent buyer", fillcolor="#399de5db"] ;
63 -> 64 ;
65 [label="REFILL_COUNT <= 7.0\ngini = 0.44\nsamples = 3\nvalue = [1, 2]\nclass = Infrequent buyer", fillcolor="#399de57f"] ;
64 -> 65 ;
66 [label="gini = 0.0\nsamples = 2\nvalue = [0, 2]\nclass = Infrequent buyer", fillcolor="#399de5ff"] ;
65 -> 66 ;
67 [label="gini = 0.0\nsamples = 1\nvalue = [1, 0]\nclass = Frequent buyer", fillcolor="#e58139ff"] ;
65 -> 67 ;
68 [label="gini = 0.0\nsamples = 2\nvalue = [0, 5]\nclass = Infrequent buyer", fillcolor="#399de5ff"] ;
64 -> 68 ;
69 [label="OSTEOARTHROSIS generalized lower leg <= 0.5\ngini = 0.41\nsamples = 4\nvalue = [2, 5]\nclass = Infrequent buyer", fillcolor="#399de599"] ;
63 -> 69 ;
70 [label="OSTEOARTHROSIS secondary lower leg <= 0.5\ngini = 0.44\nsamples = 3\nvalue = [2, 4]\nclass = Infrequent buyer", fillcolor="#399de57f"] ;
69 -> 70 ;
71 [label="gini = 0.0\nsamples = 2\nvalue = [0, 4]\nclass = Infrequent buyer", fillcolor="#399de5ff"] ;
70 -> 71 ;
72 [label="gini = 0.0\nsamples = 1\nvalue = [2, 0]\nclass = Frequent buyer", fillcolor="#e58139ff"] ;
70 -> 72 ;
73 [label="gini = 0.0\nsamples = 1\nvalue = [0, 1]\nclass = Infrequent buyer", fillcolor="#399de5ff"] ;
69 -> 73 ;
74 [label="REGION <= 2.5\ngini = 0.32\nsamples = 3\nvalue = [4, 1]\nclass = Frequent buyer", fillcolor="#e58139bf"] ;
12 -> 74 ;
75 [label="REFILL_COUNT <= 3.0\ngini = 0.5\nsamples = 2\nvalue = [1, 1]\nclass = Frequent buyer", fillcolor="#e5813900"] ;
74 -> 75 ;
76 [label="gini = 0.0\nsamples = 1\nvalue = [0, 1]\nclass = Infrequent buyer", fillcolor="#399de5ff"] ;
75 -> 76 ;
77 [label="gini = 0.0\nsamples = 1\nvalue = [1, 0]\nclass = Frequent buyer", fillcolor="#e58139ff"] ;
75 -> 77 ;
78 [label="gini = 0.0\nsamples = 1\nvalue = [3, 0]\nclass = Frequent buyer", fillcolor="#e58139ff"] ;
74 -> 78 ;
79 [label="SEX <= 1.5\ngini = 0.49\nsamples = 374\nvalue = [314, 256]\nclass = Frequent buyer", fillcolor="#e581392f"] ;
11 -> 79 ;
80 [label="REFILL_COUNT <= 3.5\ngini = 0.5\nsamples = 181\nvalue = [143, 138]\nclass = Frequent buyer", fillcolor="#e5813909"] ;
79 -> 80 ;
81 [label="gini = 0.0\nsamples = 89\nvalue = [0, 138]\nclass = Infrequent buyer", fillcolor="#399de5ff"] ;
80 -> 81 ;
82 [label="gini = 0.0\nsamples = 92\nvalue = [143, 0]\nclass = Frequent buyer", fillcolor="#e58139ff"] ;
80 -> 82 ;
83 [label="AGEGRP <= 4.5\ngini = 0.48\nsamples = 193\nvalue = [171, 118]\nclass = Frequent buyer", fillcolor="#e581394f"] ;
79 -> 83 ;
84 [label="REFILL_COUNT <= 3.5\ngini = 0.45\nsamples = 103\nvalue = [109, 55]\nclass = Frequent buyer", fillcolor="#e581397e"] ;
83 -> 84 ;
85 [label="gini = 0.0\nsamples = 33\nvalue = [0, 55]\nclass = Infrequent buyer", fillcolor="#399de5ff"] ;
84 -> 85 ;
86 [label="gini = 0.0\nsamples = 70\nvalue = [109, 0]\nclass = Frequent buyer", fillcolor="#e58139ff"] ;
84 -> 86 ;
87 [label="REFILL_COUNT <= 3.5\ngini = 0.5\nsamples = 90\nvalue = [62, 63]\nclass = Infrequent buyer", fillcolor="#399de504"] ;
83 -> 87 ;
88 [label="gini = 0.0\nsamples = 43\nvalue = [0, 63]\nclass = Infrequent buyer", fillcolor="#399de5ff"] ;
87 -> 88 ;
89 [label="gini = 0.0\nsamples = 47\nvalue = [62, 0]\nclass = Frequent buyer", fillcolor="#e58139ff"] ;
87 -> 89 ;
90 [label="ADMTYP <= 3.5\ngini = 0.47\nsamples = 61\nvalue = [40, 65]\nclass = Infrequent buyer", fillcolor="#399de562"] ;
6 -> 90 ;
91 [label="SEX <= 1.5\ngini = 0.48\nsamples = 35\nvalue = [20, 29]\nclass = Infrequent buyer", fillcolor="#399de54f"] ;
90 -> 91 ;
92 [label="OSTEOARTHROSIS secondary lower leg <= 0.5\ngini = 0.41\nsamples = 6\nvalue = [5, 2]\nclass = Frequent buyer", fillcolor="#e5813999"] ;
91 -> 92 ;
93 [label="gini = 0.0\nsamples = 1\nvalue = [1, 0]\nclass = Frequent buyer", fillcolor="#e58139ff"] ;
92 -> 93 ;
94 [label="AGEGRP <= 4.5\ngini = 0.44\nsamples = 5\nvalue = [4, 2]\nclass = Frequent buyer", fillcolor="#e581397f"] ;
92 -> 94 ;
95 [label="REGION <= 2.5\ngini = 0.44\nsamples = 3\nvalue = [1, 2]\nclass = Infrequent buyer", fillcolor="#399de57f"] ;
94 -> 95 ;
96 [label="gini = 0.0\nsamples = 2\nvalue = [0, 2]\nclass = Infrequent buyer", fillcolor="#399de5ff"] ;
95 -> 96 ;
97 [label="gini = 0.0\nsamples = 1\nvalue = [1, 0]\nclass = Frequent buyer", fillcolor="#e58139ff"] ;
95 -> 97 ;
98 [label="gini = 0.0\nsamples = 2\nvalue = [3, 0]\nclass = Frequent buyer", fillcolor="#e58139ff"] ;
94 -> 98 ;
99 [label="ADMTYP <= 2.5\ngini = 0.46\nsamples = 29\nvalue = [15, 27]\nclass = Infrequent buyer", fillcolor="#399de571"] ;
91 -> 99 ;
100 [label="REFILL_COUNT <= 7.0\ngini = 0.47\nsamples = 17\nvalue = [10, 16]\nclass = Infrequent buyer", fillcolor="#399de560"] ;
99 -> 100 ;
101 [label="gini = 0.0\nsamples = 10\nvalue = [0, 16]\nclass = Infrequent buyer", fillcolor="#399de5ff"] ;
100 -> 101 ;
102 [label="gini = 0.0\nsamples = 7\nvalue = [10, 0]\nclass = Frequent buyer", fillcolor="#e58139ff"] ;
100 -> 102 ;
103 [label="Total Knee Replacement <= 0.5\ngini = 0.43\nsamples = 12\nvalue = [5, 11]\nclass = Infrequent buyer", fillcolor="#399de58b"] ;
99 -> 103 ;
104 [label="gini = 0.0\nsamples = 3\nvalue = [0, 4]\nclass = Infrequent buyer", fillcolor="#399de5ff"] ;
103 -> 104 ;
105 [label="REGION <= 1.5\ngini = 0.49\nsamples = 9\nvalue = [5, 7]\nclass = Infrequent buyer", fillcolor="#399de549"] ;
103 -> 105 ;
106 [label="gini = 0.0\nsamples = 3\nvalue = [0, 5]\nclass = Infrequent buyer", fillcolor="#399de5ff"] ;
105 -> 106 ;
107 [label="AGEGRP <= 3.5\ngini = 0.41\nsamples = 6\nvalue = [5, 2]\nclass = Frequent buyer", fillcolor="#e5813999"] ;
105 -> 107 ;
108 [label="gini = 0.0\nsamples = 1\nvalue = [2, 0]\nclass = Frequent buyer", fillcolor="#e58139ff"] ;
107 -> 108 ;
109 [label="REGION <= 3.5\ngini = 0.48\nsamples = 5\nvalue = [3, 2]\nclass = Frequent buyer", fillcolor="#e5813955"] ;
107 -> 109 ;
110 [label="REGION <= 2.5\ngini = 0.5\nsamples = 4\nvalue = [2, 2]\nclass = Frequent buyer", fillcolor="#e5813900"] ;
109 -> 110 ;
111 [label="REFILL_COUNT <= 7.0\ngini = 0.5\nsamples = 2\nvalue = [1, 1]\nclass = Frequent buyer", fillcolor="#e5813900"] ;
110 -> 111 ;
112 [label="gini = 0.0\nsamples = 1\nvalue = [0, 1]\nclass = Infrequent buyer", fillcolor="#399de5ff"] ;
111 -> 112 ;
113 [label="gini = 0.0\nsamples = 1\nvalue = [1, 0]\nclass = Frequent buyer", fillcolor="#e58139ff"] ;
111 -> 113 ;
114 [label="REFILL_COUNT <= 10.5\ngini = 0.5\nsamples = 2\nvalue = [1, 1]\nclass = Frequent buyer", fillcolor="#e5813900"] ;
110 -> 114 ;
115 [label="gini = 0.0\nsamples = 1\nvalue = [0, 1]\nclass = Infrequent buyer", fillcolor="#399de5ff"] ;
114 -> 115 ;
116 [label="gini = 0.0\nsamples = 1\nvalue = [1, 0]\nclass = Frequent buyer", fillcolor="#e58139ff"] ;
114 -> 116 ;
117 [label="gini = 0.0\nsamples = 1\nvalue = [1, 0]\nclass = Frequent buyer", fillcolor="#e58139ff"] ;
109 -> 117 ;
118 [label="REFILL_COUNT <= 3.0\ngini = 0.46\nsamples = 26\nvalue = [20, 36]\nclass = Infrequent buyer", fillcolor="#399de571"] ;
90 -> 118 ;
119 [label="gini = 0.0\nsamples = 16\nvalue = [0, 36]\nclass = Infrequent buyer", fillcolor="#399de5ff"] ;
118 -> 119 ;
120 [label="gini = 0.0\nsamples = 10\nvalue = [20, 0]\nclass = Frequent buyer", fillcolor="#e58139ff"] ;
118 -> 120 ;
121 [label="REFILL_COUNT <= 3.5\ngini = 0.41\nsamples = 2060\nvalue = [952, 2332]\nclass = Infrequent buyer", fillcolor="#399de597"] ;
5 -> 121 ;
122 [label="gini = 0.0\nsamples = 1467\nvalue = [0, 2332]\nclass = Infrequent buyer", fillcolor="#399de5ff"] ;
121 -> 122 ;
123 [label="gini = 0.0\nsamples = 593\nvalue = [952, 0]\nclass = Frequent buyer", fillcolor="#e58139ff"] ;
121 -> 123 ;
124 [label="ADMTYP <= 1.5\ngini = 0.5\nsamples = 840\nvalue = [635, 724]\nclass = Infrequent buyer", fillcolor="#399de51f"] ;
0 -> 124 [labeldistance=2.5, labelangle=-45, headlabel="False"] ;
125 [label="gini = 0.0\nsamples = 11\nvalue = [0, 18]\nclass = Infrequent buyer", fillcolor="#399de5ff"] ;
124 -> 125 ;
126 [label="Total Knee Arthrolplasty <= 0.5\ngini = 0.5\nsamples = 829\nvalue = [635, 706]\nclass = Infrequent buyer", fillcolor="#399de51a"] ;
124 -> 126 ;
127 [label="AGEGRP <= 2.5\ngini = 0.5\nsamples = 792\nvalue = [601, 677]\nclass = Infrequent buyer", fillcolor="#399de51d"] ;
126 -> 127 ;
128 [label="REFILL_COUNT <= 3.5\ngini = 0.4\nsamples = 117\nvalue = [50, 134]\nclass = Infrequent buyer", fillcolor="#399de5a0"] ;
127 -> 128 ;
129 [label="gini = 0.0\nsamples = 87\nvalue = [0, 134]\nclass = Infrequent buyer", fillcolor="#399de5ff"] ;
128 -> 129 ;
130 [label="gini = 0.0\nsamples = 30\nvalue = [50, 0]\nclass = Frequent buyer", fillcolor="#e58139ff"] ;
128 -> 130 ;
131 [label="REFILL_COUNT <= 3.5\ngini = 0.5\nsamples = 675\nvalue = [551, 543]\nclass = Frequent buyer", fillcolor="#e5813904"] ;
127 -> 131 ;
132 [label="gini = 0.0\nsamples = 334\nvalue = [0, 543]\nclass = Infrequent buyer", fillcolor="#399de5ff"] ;
131 -> 132 ;
133 [label="gini = 0.0\nsamples = 341\nvalue = [551, 0]\nclass = Frequent buyer", fillcolor="#e58139ff"] ;
131 -> 133 ;
134 [label="OSTEOARTHROSIS primary lower leg <= 0.5\ngini = 0.5\nsamples = 37\nvalue = [34, 29]\nclass = Frequent buyer", fillcolor="#e5813925"] ;
126 -> 134 ;
135 [label="REFILL_COUNT <= 3.5\ngini = 0.47\nsamples = 30\nvalue = [30, 19]\nclass = Frequent buyer", fillcolor="#e581395e"] ;
134 -> 135 ;
136 [label="gini = 0.0\nsamples = 11\nvalue = [0, 19]\nclass = Infrequent buyer", fillcolor="#399de5ff"] ;
135 -> 136 ;
137 [label="gini = 0.0\nsamples = 19\nvalue = [30, 0]\nclass = Frequent buyer", fillcolor="#e58139ff"] ;
135 -> 137 ;
138 [label="SEX <= 1.5\ngini = 0.41\nsamples = 7\nvalue = [4, 10]\nclass = Infrequent buyer", fillcolor="#399de599"] ;
134 -> 138 ;
139 [label="REFILL_COUNT <= 3.0\ngini = 0.5\nsamples = 3\nvalue = [3, 3]\nclass = Frequent buyer", fillcolor="#e5813900"] ;
138 -> 139 ;
140 [label="gini = 0.0\nsamples = 2\nvalue = [0, 3]\nclass = Infrequent buyer", fillcolor="#399de5ff"] ;
139 -> 140 ;
141 [label="gini = 0.0\nsamples = 1\nvalue = [3, 0]\nclass = Frequent buyer", fillcolor="#e58139ff"] ;
139 -> 141 ;
142 [label="AGEGRP <= 4.5\ngini = 0.22\nsamples = 4\nvalue = [1, 7]\nclass = Infrequent buyer", fillcolor="#399de5db"] ;
138 -> 142 ;
143 [label="gini = 0.0\nsamples = 1\nvalue = [1, 0]\nclass = Frequent buyer", fillcolor="#e58139ff"] ;
142 -> 143 ;
144 [label="gini = 0.0\nsamples = 3\nvalue = [0, 7]\nclass = Infrequent buyer", fillcolor="#399de5ff"] ;
142 -> 144 ;
}